~o
<STREAMINFO> 1 75
<VECSIZE> 75<NULLD><USER><DIAGC>
~v "varFloor1"
<VARIANCE> 75
 1.871769e+004 1.134236e+002 4.504493e+001 2.566116e+001 3.251747e+001 8.971758e+001 1.204250e+001 7.410667e+000 5.012776e+000 7.131487e+000 3.467045e+001 6.827472e+000 4.901803e+000 3.570853e+000 5.246048e+000 1.909380e+001 4.292260e+000 3.363824e+000 2.583122e+000 3.900262e+000 2.333386e+001 5.625110e+000 4.567225e+000 3.657877e+000 5.767756e+000 3.895047e+002 2.124694e+000 3.560051e-001 8.906633e-002 7.816897e-002 1.604695e+000 1.162357e-001 3.162600e-002 9.244359e-003 1.136996e-002 2.524315e-001 2.849106e-002 1.051433e-002 4.623482e-003 7.466323e-003 6.476349e-002 8.343576e-003 4.515673e-003 3.173599e-003 6.252886e-003 6.360047e-002 1.111201e-002 7.644094e-003 6.359239e-003 1.333159e-002 6.961431e+002 4.267205e+000 6.633918e-001 1.604981e-001 1.312074e-001 3.503976e+000 2.247193e-001 5.563833e-002 1.464764e-002 1.648996e-002 5.037551e-001 5.127791e-002 1.671755e-002 6.535924e-003 9.871146e-003 1.261248e-001 1.364882e-002 6.560762e-003 4.128940e-003 7.846769e-003 1.147393e-001 1.687665e-002 1.064524e-002 8.279939e-003 1.704204e-002
~h "A"
<BEGINHMM>
<NUMSTATES> 3
<STATE> 2
<MEAN> 75
 1.856456e+003 7.761479e-001 -7.239041e-002 1.346899e-001 -1.709106e-002 -3.961293e-002 -1.919192e-004 -2.431424e-005 4.947635e-005 4.967392e-006 -3.137040e-002 3.196331e-005 -1.432917e-005 -2.246655e-006 -4.843396e-005 -7.073834e-004 -5.841884e-005 -1.915969e-005 -1.516054e-006 1.543547e-005 -4.483477e-003 2.547466e-005 -8.203398e-006 7.512032e-007 -5.865921e-006 -5.812400e+001 1.786708e-001 2.007422e-003 3.056048e-002 5.144431e-004 3.378903e-003 -4.223813e-005 1.889947e-006 -9.795812e-006 -2.745080e-006 9.913297e-004 -2.566365e-006 -1.957440e-006 7.893418e-007 -1.030136e-006 7.840245e-004 -7.564096e-006 -9.628319e-008 -1.875388e-006 -8.562756e-007 3.777014e-004 -2.394074e-006 -1.652302e-006 5.314108e-007 -5.524619e-007 1.205250e+001 -1.731907e-001 3.402971e-005 -2.976405e-002 5.098487e-004 -4.632098e-003 8.060098e-005 2.130258e-006 1.969954e-005 1.821031e-006 -1.150216e-003 -2.015777e-006 2.629010e-007 -1.264210e-006 -5.322395e-007 -4.835376e-004 1.236787e-005 -5.506192e-007 2.587108e-006 -3.531018e-007 -1.085159e-004 2.032182e-006 7.350214e-007 2.066942e-007 8.368509e-008
<VARIANCE> 75
 1.033737e+006 1.076762e+004 4.523365e+003 2.651180e+003 3.430927e+003 7.940005e+003 1.098346e+003 7.235670e+002 5.116133e+002 7.495514e+002 3.192084e+003 6.277694e+002 4.755502e+002 3.611700e+002 5.460836e+002 1.801158e+003 4.029742e+002 3.272345e+002 2.601756e+002 4.049532e+002 2.251042e+003 5.377556e+002 4.522693e+002 3.721680e+002 5.980288e+002 4.887339e+004 1.891956e+002 3.328563e+001 8.462506e+000 7.692379e+000 1.390191e+002 1.051439e+001 3.013239e+000 9.216151e-001 1.131527e+000 2.377105e+001 2.672470e+000 1.033241e+000 4.709260e-001 7.521362e-001 6.236262e+000 8.305287e-001 4.634387e-001 3.230333e-001 6.204899e-001 6.443689e+000 1.117206e+000 7.860274e-001 6.435539e-001 1.325645e+000 7.425923e+004 3.300569e+002 5.508544e+001 1.346908e+001 1.170905e+001 2.690911e+002 1.753874e+001 4.620308e+000 1.284139e+000 1.484860e+000 4.217262e+001 4.166876e+000 1.450867e+000 5.885110e-001 9.045443e-001 1.072265e+001 1.191228e+000 5.925186e-001 3.817747e-001 7.198145e-001 1.054903e+001 1.551380e+000 9.903495e-001 7.697093e-001 1.552390e+000
<GCONST> 3.984565e+002
<TRANSP> 3
 0.000000e+000 1.000000e+000 0.000000e+000
 0.000000e+000 9.918850e-001 8.115019e-003
 0.000000e+000 0.000000e+000 0.000000e+000
<ENDHMM>
~h "B"
<BEGINHMM>
<NUMSTATES> 3
<STATE> 2
<MEAN> 75
 2.164167e+003 6.655035e+000 8.705168e-002 1.175433e+000 3.251397e-002 2.898737e-001 4.870297e-003 1.555484e-003 -9.885764e-004 8.481437e-004 1.630275e-002 -1.368147e-003 -3.890791e-004 -1.884641e-004 -1.000714e-004 5.412000e-002 9.260055e-004 2.833082e-004 2.003334e-004 -2.399367e-004 4.121191e-003 -4.645043e-004 -8.058049e-005 6.620235e-005 -1.075503e-004 4.318982e+001 1.257881e-001 -1.493753e-002 2.788883e-002 -7.862123e-003 4.061785e-002 2.587982e-004 -2.379153e-004 1.476569e-004 -1.105740e-004 2.390945e-003 8.463415e-005 3.386545e-006 1.138260e-005 -3.881364e-007 6.637036e-003 3.192871e-005 -3.714456e-005 2.458070e-005 -1.730495e-005 1.210502e-003 2.114107e-005 3.039649e-006 2.857325e-007 1.777954e-006 -7.743407e+001 -6.241208e-002 1.217789e-002 -2.026453e-002 4.763198e-003 -1.149161e-001 -1.146614e-003 3.000605e-004 -2.825873e-004 1.752032e-004 -7.249676e-004 -1.002496e-004 9.254189e-006 -2.562670e-005 8.658772e-006 -1.904174e-002 -1.747876e-004 4.629872e-005 -5.269223e-005 2.984141e-005 -1.828979e-004 -3.979556e-005 -1.735826e-005 -1.348895e-005 -5.620690e-006
<VARIANCE> 75
 9.427385e+005 1.622672e+004 5.991806e+003 3.386785e+003 4.287540e+003 8.022836e+003 1.123360e+003 6.489749e+002 4.383699e+002 6.419757e+002 3.006375e+003 5.677365e+002 3.562847e+002 2.494273e+002 3.782322e+002 1.593354e+003 3.524106e+002 2.345209e+002 1.642778e+002 2.464157e+002 1.976754e+003 4.877602e+002 3.483540e+002 2.470305e+002 3.587081e+002 4.617109e+004 2.768975e+002 3.995660e+001 9.601046e+000 8.197289e+000 1.158429e+002 9.564005e+000 2.548086e+000 6.742890e-001 7.823569e-001 1.392307e+001 1.757078e+000 6.579035e-001 2.772224e-001 4.368618e-001 4.028352e+000 5.267594e-001 2.688449e-001 1.788191e-001 3.423551e-001 4.230089e+000 7.492194e-001 4.874063e-001 3.734888e-001 7.390757e-001 9.634460e+004 7.785925e+002 1.141473e+002 2.645148e+001 2.165116e+001 4.667932e+002 3.276414e+001 7.448932e+000 1.760098e+000 1.832281e+000 6.295751e+001 6.737785e+000 1.979787e+000 6.394390e-001 8.952819e-001 1.489631e+001 1.611208e+000 6.675092e-001 3.742947e-001 6.734188e-001 1.396781e+001 1.995674e+000 1.082175e+000 7.574779e-001 1.464812e+000
<GCONST> 3.948283e+002
<TRANSP> 3
 0.000000e+000 1.000000e+000 0.000000e+000
 0.000000e+000 9.844523e-001 1.554767e-002
 0.000000e+000 0.000000e+000 0.000000e+000
<ENDHMM>
~h "C"
<BEGINHMM>
<NUMSTATES> 3
<STATE> 2
<MEAN> 75
 1.893741e+003 9.723800e-001 4.006945e-002 1.522895e-001 3.137357e-002 2.964202e-001 1.543247e-002 -6.140287e-003 3.583820e-003 -1.244967e-003 -7.831678e-003 -3.141655e-004 3.906267e-005 -1.314764e-004 2.211953e-004 5.055856e-002 2.713821e-003 -8.612949e-004 4.385504e-004 -5.488821e-004 -3.935131e-003 -1.312266e-004 2.629782e-004 -9.332930e-005 -1.855363e-004 -9.916031e+001 -1.004886e-001 8.336760e-003 -1.668673e-002 5.351524e-003 -1.372646e-001 -3.036546e-003 7.065559e-004 -6.511419e-004 3.406486e-004 2.877974e-005 1.091582e-004 -1.671139e-004 -3.090196e-005 -7.294057e-005 -2.409001e-002 -4.909372e-004 1.172078e-004 -9.600347e-005 4.304226e-005 8.316135e-004 3.567627e-005 -4.874647e-005 -2.034919e-005 1.740569e-005 4.974201e+001 -8.288736e-002 -6.263288e-003 -1.910866e-002 -4.058054e-003 1.903169e-002 1.941561e-003 1.490323e-004 2.726561e-004 -6.280922e-005 3.887767e-004 4.761470e-005 -1.852555e-005 1.222020e-005 8.413409e-006 3.789278e-003 3.465686e-004 2.621908e-005 4.923470e-005 -4.481421e-006 2.367794e-004 1.990699e-005 -2.182071e-005 6.400288e-006 3.175902e-006
<VARIANCE> 75
 9.281301e+005 1.522279e+004 5.830926e+003 3.268728e+003 4.108308e+003 1.479377e+004 2.364367e+003 1.337173e+003 8.593711e+002 1.216032e+003 5.704930e+003 1.423820e+003 9.685206e+002 6.680241e+002 9.518159e+002 2.969798e+003 8.892354e+002 6.975745e+002 5.167847e+002 7.333043e+002 3.483343e+003 1.141349e+003 9.456505e+002 7.363434e+002 1.087750e+003 4.391309e+004 4.991288e+002 9.003001e+001 2.049713e+001 1.814883e+001 4.089298e+002 3.918032e+001 1.050262e+001 2.715162e+000 2.991500e+000 6.234741e+001 8.939509e+000 3.240528e+000 1.259450e+000 1.855652e+000 1.462880e+001 2.292122e+000 1.190953e+000 8.099893e-001 1.593969e+000 1.389825e+001 2.768439e+000 1.847092e+000 1.572885e+000 3.594203e+000 4.153344e+004 5.488958e+002 8.132172e+001 2.066532e+001 1.671354e+001 6.917397e+002 4.147939e+001 8.580436e+000 2.255813e+000 2.535633e+000 9.575627e+001 9.540776e+000 2.661317e+000 9.697577e-001 1.478780e+000 2.193326e+001 2.311387e+000 9.810328e-001 6.058067e-001 1.179103e+000 2.032838e+001 2.715691e+000 1.554701e+000 1.221486e+000 2.572332e+000
<GCONST> 4.490971e+002
<TRANSP> 3
 0.000000e+000 1.000000e+000 0.000000e+000
 0.000000e+000 9.595353e-001 4.046470e-002
 0.000000e+000 0.000000e+000 0.000000e+000
<ENDHMM>
~h "D"
<BEGINHMM>
<NUMSTATES> 3
<STATE> 2
<MEAN> 75
 1.917155e+003 4.768460e-001 5.500502e-003 9.941073e-002 -3.138779e-003 -3.361617e-001 -7.944307e-003 -8.239162e-004 -8.181480e-004 -6.377653e-004 -5.981301e-004 4.025678e-004 -8.351611e-004 1.572699e-004 -3.253368e-004 -5.674091e-002 -7.766453e-004 -1.091567e-004 -1.374953e-004 1.904804e-005 -4.743525e-004 1.734908e-004 -2.356703e-004 4.985752e-005 -4.641394e-005 -1.495853e+002 6.076172e-002 -4.374003e-003 1.103632e-002 -1.110117e-003 -8.007707e-002 1.162613e-003 1.679234e-004 1.776330e-004 4.840063e-005 1.698418e-003 4.395066e-005 -1.364949e-006 7.190337e-006 -4.165955e-006 -1.373459e-002 2.003122e-004 3.059129e-005 3.209953e-005 8.734806e-006 1.104204e-003 2.423290e-005 -2.881846e-006 1.114291e-006 -2.454790e-006 6.275842e+001 -3.246401e-001 5.452045e-003 -5.660611e-002 2.142290e-003 -5.428361e-002 -1.215475e-003 1.652706e-004 -1.865151e-004 6.395877e-005 -1.472179e-003 1.201073e-004 4.263205e-006 1.875386e-005 -6.821161e-007 -9.064356e-003 -2.101730e-004 2.449210e-005 -3.391679e-005 6.286668e-006 -4.623980e-004 5.162194e-005 1.953418e-006 9.016858e-006 -4.770803e-006
<VARIANCE> 75
 9.090214e+005 9.901027e+003 2.753842e+003 1.235303e+003 1.438933e+003 9.301907e+003 1.387200e+003 6.981985e+002 3.807240e+002 4.342508e+002 2.761011e+003 6.642267e+002 4.481238e+002 2.983982e+002 3.715876e+002 1.184187e+003 3.424444e+002 2.706265e+002 2.012001e+002 2.913238e+002 1.184661e+003 3.828174e+002 3.142113e+002 2.453061e+002 3.881811e+002 7.647427e+004 2.364872e+002 2.296643e+001 7.221016e+000 5.641833e+000 2.155581e+002 1.273594e+001 2.766638e+000 7.707161e-001 9.814441e-001 2.066917e+001 2.681726e+000 9.360681e-001 4.082285e-001 6.716934e-001 6.832034e+000 7.796754e-001 4.071365e-001 2.858959e-001 5.806689e-001 5.820148e+000 1.055229e+000 7.267002e-001 6.023336e-001 1.231392e+000 7.516496e+004 3.183895e+002 3.423650e+001 1.035565e+001 8.500804e+000 2.528081e+002 1.568033e+001 3.657007e+000 1.043059e+000 1.291843e+000 2.480736e+001 3.099197e+000 1.151475e+000 5.042542e-001 8.158882e-001 8.157973e+000 9.741743e-001 5.176623e-001 3.519028e-001 6.796735e-001 7.990696e+000 1.383746e+000 9.171643e-001 7.290595e-001 1.493146e+000
<GCONST> 3.857851e+002
<TRANSP> 3
 0.000000e+000 1.000000e+000 0.000000e+000
 0.000000e+000 9.862980e-001 1.370202e-002
 0.000000e+000 0.000000e+000 0.000000e+000
<ENDHMM>
~h "E"
<BEGINHMM>
<NUMSTATES> 3
<STATE> 2
<MEAN> 75
 1.924664e+003 5.014791e+000 2.022711e-001 7.846808e-001 1.021776e-001 -5.323243e-001 1.469279e-002 3.659676e-004 1.583990e-003 -7.469448e-004 -7.033323e-003 3.011431e-004 -9.537286e-004 3.736510e-004 -8.919403e-004 -9.461837e-002 2.062791e-003 -4.401091e-004 1.717065e-004 -3.335256e-004 -1.089870e-002 -7.594881e-004 6.474605e-004 1.534756e-004 1.901160e-005 6.994501e+001 3.020759e-001 7.174504e-003 4.663512e-002 5.483990e-003 5.561927e-002 1.251128e-003 -1.069723e-004 6.340299e-005 -7.160014e-005 -7.207785e-004 -1.193195e-004 6.966521e-005 -1.439536e-005 2.352827e-005 9.664448e-003 2.540331e-004 -2.055433e-005 1.463410e-005 -7.926203e-006 -1.179607e-003 -3.580142e-005 3.715906e-005 1.591259e-006 8.049957e-006 -9.277215e+001 -5.939245e-001 -2.919563e-002 -9.726358e-002 -1.262133e-002 1.524492e-002 -5.135300e-004 3.745959e-005 1.672788e-005 4.799532e-005 1.011149e-003 8.936969e-005 -9.093641e-005 -1.993240e-006 -2.704544e-005 2.735485e-003 -1.022540e-004 1.245125e-006 -2.157877e-007 7.243068e-006 -2.734058e-004 4.919798e-006 -2.169587e-005 -1.198701e-006 -1.989962e-005
<VARIANCE> 75
 9.003616e+005 2.580156e+004 1.026747e+004 6.137284e+003 9.343254e+003 7.781338e+003 1.242056e+003 8.493295e+002 6.323456e+002 1.096133e+003 3.676707e+003 6.822291e+002 5.020747e+002 3.835641e+002 6.467299e+002 2.326774e+003 4.713181e+002 3.606334e+002 2.807219e+002 4.617209e+002 3.032835e+003 6.847573e+002 5.320744e+002 4.312799e+002 6.888057e+002 2.573072e+004 2.768807e+002 4.817767e+001 1.262838e+001 1.138261e+001 8.509355e+001 8.930823e+000 2.814781e+000 8.842630e-001 1.140192e+000 1.650514e+001 2.098062e+000 8.293583e-001 3.831498e-001 6.387416e-001 4.629325e+000 6.795406e-001 3.736514e-001 2.589211e-001 5.071813e-001 5.159923e+000 9.549721e-001 6.603292e-001 5.299154e-001 1.080767e+000 3.941563e+004 5.424745e+002 8.493640e+001 2.145572e+001 1.905011e+001 1.589769e+002 1.671476e+001 5.248727e+000 1.634418e+000 2.036140e+000 2.588211e+001 3.573699e+000 1.464216e+000 6.896097e-001 1.178824e+000 7.223773e+000 1.141410e+000 6.433759e-001 4.554908e-001 9.335597e-001 8.001745e+000 1.600428e+000 1.138979e+000 9.317935e-001 1.932941e+000
<GCONST> 4.033203e+002
<TRANSP> 3
 0.000000e+000 1.000000e+000 0.000000e+000
 0.000000e+000 9.807337e-001 1.926633e-002
 0.000000e+000 0.000000e+000 0.000000e+000
<ENDHMM>
~h "F"
<BEGINHMM>
<NUMSTATES> 3
<STATE> 2
<MEAN> 75
 1.306483e+003 1.642940e-001 1.649947e-001 2.839834e-002 4.494060e-002 -8.090103e-002 -1.973582e-003 4.927304e-004 9.191710e-005 -1.686930e-006 -2.789066e-002 -8.176628e-004 -4.288298e-004 -1.467678e-004 -7.766930e-005 6.133746e-003 -2.244620e-004 5.221493e-005 -2.414057e-005 3.808259e-005 -4.538610e-003 -5.917661e-004 -2.507172e-004 -1.002836e-004 1.790353e-005 -9.664496e+001 8.170026e-002 -2.502107e-004 1.361202e-002 -8.823795e-004 -4.311506e-003 -6.320273e-004 2.271410e-004 -1.321983e-004 1.457190e-004 -5.382841e-003 9.465655e-005 5.956060e-005 2.452279e-005 2.659480e-005 -1.529985e-003 -1.372829e-004 3.136119e-005 -2.933477e-005 1.485071e-005 -2.365368e-003 3.394171e-005 1.660749e-005 1.131838e-005 1.839184e-005 1.608306e+002 -1.971928e-001 -3.175576e-003 -3.181342e-002 -1.474883e-003 -2.011672e-002 1.336109e-003 9.965496e-005 2.585768e-004 3.338928e-005 7.676549e-003 1.985580e-005 -4.013582e-005 -2.823652e-006 -2.533710e-005 -3.383438e-003 2.190753e-004 2.605000e-005 4.687492e-005 1.391529e-006 4.801822e-003 -8.227366e-006 -1.902957e-005 -2.482978e-006 2.282633e-006
<VARIANCE> 75
 1.114110e+006 1.554877e+004 5.151679e+003 2.612171e+003 2.965514e+003 1.427231e+004 1.644926e+003 9.236038e+002 5.581143e+002 7.175948e+002 5.038861e+003 8.916443e+002 5.728127e+002 3.729309e+002 5.038161e+002 2.575868e+003 5.028932e+002 3.545098e+002 2.515632e+002 3.531481e+002 2.975552e+003 6.288295e+002 4.572081e+002 3.393114e+002 5.093564e+002 4.254206e+004 3.680929e+002 5.635175e+001 1.366795e+001 1.228969e+001 4.075009e+002 2.420453e+001 6.463170e+000 1.980915e+000 2.333286e+000 5.759990e+001 5.643103e+000 2.173210e+000 1.116327e+000 1.881455e+000 1.486819e+001 1.722339e+000 9.235141e-001 7.080942e-001 1.738123e+000 1.419745e+001 2.368811e+000 1.625586e+000 1.354068e+000 3.011852e+000 1.452651e+005 9.236610e+002 1.237888e+002 3.064901e+001 2.292100e+001 1.160503e+003 5.471087e+001 1.181638e+001 2.678661e+000 2.762965e+000 1.365324e+002 1.212236e+001 3.395554e+000 9.892917e-001 1.377453e+000 3.675508e+001 2.846137e+000 1.082995e+000 5.476778e-001 9.883209e-001 2.749189e+001 3.128085e+000 1.593556e+000 1.088997e+000 2.097623e+000
<GCONST> 4.391247e+002
<TRANSP> 3
 0.000000e+000 1.000000e+000 0.000000e+000
 0.000000e+000 9.784164e-001 2.158352e-002
 0.000000e+000 0.000000e+000 0.000000e+000
<ENDHMM>
~h "G"
<BEGINHMM>
<NUMSTATES> 3
<STATE> 2
<MEAN> 75
 1.637089e+003 7.354983e+000 4.453092e-002 1.206378e+000 8.964325e-002 9.244274e-002 8.400365e-003 4.009705e-004 1.263171e-003 7.592014e-004 9.475697e-002 -6.804196e-004 -2.362559e-004 -1.686314e-004 -2.084596e-004 -7.048589e-003 7.992517e-004 1.366786e-004 1.288683e-004 1.453741e-004 -5.868459e-003 -3.042890e-004 2.631080e-005 -6.147300e-005 -4.956585e-005 -5.330902e+000 2.705646e-001 8.257760e-003 4.699133e-002 5.126597e-003 6.273513e-002 1.244538e-003 -2.542065e-006 1.280104e-004 -1.767676e-005 -7.816626e-003 1.645759e-004 1.816663e-005 1.594946e-005 6.129394e-006 1.225966e-002 2.297438e-004 -9.514438e-006 2.674906e-005 -7.801453e-006 -3.147325e-003 4.576272e-005 -4.432327e-006 9.164434e-006 -3.260287e-006 4.069289e+001 -4.110614e-001 -2.024776e-002 -5.945962e-002 -1.041441e-002 -2.998879e-001 -3.625697e-003 -6.820266e-005 -4.339917e-004 -1.288377e-005 -5.495891e-003 3.198109e-004 -7.218134e-006 5.894695e-005 -3.262870e-006 -5.117380e-002 -5.635780e-004 -1.557095e-005 -6.727913e-005 -2.067366e-006 -4.150425e-003 1.614521e-004 -6.529633e-007 1.965952e-005 2.626725e-006
<VARIANCE> 75
 1.090522e+006 2.067264e+004 8.610182e+003 4.681398e+003 6.133082e+003 1.494154e+004 1.439116e+003 7.949869e+002 5.036965e+002 7.588360e+002 6.237379e+003 7.618291e+002 4.757669e+002 3.231824e+002 4.587666e+002 2.857769e+003 4.476964e+002 3.107151e+002 2.330688e+002 3.312590e+002 3.512083e+003 5.985728e+002 4.051133e+002 3.110881e+002 4.872452e+002 4.514977e+004 5.331562e+002 7.787885e+001 1.837452e+001 1.669774e+001 2.746040e+002 1.547132e+001 3.622744e+000 1.028156e+000 1.341824e+000 4.145029e+001 3.327891e+000 1.073914e+000 4.505721e-001 7.664776e-001 1.008578e+001 9.425892e-001 4.387040e-001 2.902340e-001 5.809875e-001 9.521050e+000 1.171423e+000 7.099862e-001 5.565811e-001 1.174047e+000 1.319161e+005 1.180984e+003 1.628503e+002 3.835860e+001 3.098130e+001 6.881168e+002 3.795019e+001 8.727386e+000 2.197024e+000 2.517757e+000 1.006525e+002 8.250854e+000 2.455569e+000 9.284179e-001 1.433265e+000 2.488838e+001 2.250281e+000 9.657101e-001 5.992876e-001 1.109891e+000 2.166423e+001 2.690408e+000 1.557406e+000 1.159867e+000 2.333695e+000
<GCONST> 4.256664e+002
<TRANSP> 3
 0.000000e+000 1.000000e+000 0.000000e+000
 0.000000e+000 9.883289e-001 1.167121e-002
 0.000000e+000 0.000000e+000 0.000000e+000
<ENDHMM>
~h "H"
<BEGINHMM>
<NUMSTATES> 3
<STATE> 2
<MEAN> 75
 2.020562e+003 3.710383e+000 -1.481768e-001 5.472955e-001 -2.830501e-002 5.140125e-001 -9.584695e-003 -2.483750e-003 -1.561884e-003 -2.999850e-004 -2.805085e-002 -1.653554e-004 -5.817584e-004 -4.915588e-005 -3.951402e-004 6.814107e-002 -1.944957e-003 -2.188047e-004 -4.882700e-004 -2.108423e-004 -1.136430e-002 -3.991751e-004 -2.973716e-004 7.007842e-005 2.075714e-005 3.551412e+000 -2.658615e-002 -1.904955e-002 -6.862677e-003 -8.187130e-003 -7.913008e-003 -1.619290e-003 -2.544308e-005 -2.441247e-004 -2.334821e-005 -3.425157e-005 -6.377557e-006 1.366786e-005 -1.149270e-005 9.526298e-006 -5.247607e-004 -2.682723e-004 -1.118685e-007 -4.122088e-005 -3.855705e-006 -5.232731e-004 5.218614e-006 5.964331e-006 -1.695655e-006 -8.865845e-007 1.240871e+001 -2.196207e-002 1.424083e-003 -6.136158e-003 -1.896502e-003 4.840206e-002 3.001978e-003 6.809503e-005 5.003147e-004 1.683650e-005 3.309357e-003 1.882499e-005 1.133795e-005 9.586133e-006 3.497852e-006 7.858342e-003 5.145842e-004 1.829123e-005 8.032564e-005 4.834337e-006 1.514782e-003 -1.215900e-006 7.333986e-006 2.377073e-006 8.622146e-006
<VARIANCE> 75
 1.857737e+006 2.333833e+004 8.978640e+003 4.740599e+003 5.550836e+003 1.129266e+004 1.935561e+003 1.133047e+003 6.632423e+002 7.958434e+002 4.439885e+003 1.042374e+003 6.821108e+002 4.162457e+002 5.187264e+002 2.222225e+003 5.461509e+002 4.000749e+002 2.717180e+002 3.579334e+002 2.216400e+003 5.750463e+002 4.576780e+002 3.566239e+002 5.242645e+002 1.910930e+004 3.187435e+002 7.272254e+001 1.853655e+001 1.546067e+001 1.234501e+002 1.325110e+001 4.529643e+000 1.377465e+000 1.449674e+000 2.058332e+001 3.162013e+000 1.344849e+000 5.501018e-001 8.132986e-001 5.563909e+000 8.949302e-001 5.115666e-001 3.357553e-001 6.429564e-001 5.611275e+000 1.121797e+000 7.871252e-001 6.549119e-001 1.392813e+000 5.553475e+004 7.016612e+002 1.251583e+002 2.998766e+001 2.548128e+001 4.043842e+002 2.981611e+001 7.403928e+000 2.057350e+000 2.448857e+000 5.207197e+001 6.343284e+000 2.161395e+000 8.841740e-001 1.428348e+000 1.348211e+001 1.681899e+000 8.847510e-001 5.868986e-001 1.141420e+000 1.279603e+001 2.127938e+000 1.455347e+000 1.236304e+000 2.523945e+000
<GCONST> 4.195254e+002
<TRANSP> 3
 0.000000e+000 1.000000e+000 0.000000e+000
 0.000000e+000 9.847417e-001 1.525831e-002
 0.000000e+000 0.000000e+000 0.000000e+000
<ENDHMM>
~h "I"
<BEGINHMM>
<NUMSTATES> 3
<STATE> 2
<MEAN> 75
 1.694645e+003 1.588395e+000 2.402908e-002 2.707340e-001 1.767967e-002 -2.872706e-001 -1.883475e-003 5.062405e-004 -1.111921e-003 2.097478e-006 -1.476473e-002 3.151314e-004 7.903911e-005 2.200922e-004 -1.641793e-004 -5.245029e-002 -2.222915e-004 7.172651e-005 -1.561447e-004 -3.890028e-006 -5.723206e-003 8.551384e-005 3.579521e-005 4.439215e-005 -1.004167e-004 -1.174545e+002 -2.584756e-002 3.379476e-003 -3.496767e-003 2.123898e-003 -3.359213e-002 7.888671e-004 4.002211e-005 1.372598e-004 1.238570e-005 1.588920e-003 6.560295e-005 -1.608293e-006 8.631842e-006 2.337951e-006 -5.667822e-003 1.362427e-004 5.653560e-006 2.562418e-005 3.779243e-006 1.119654e-003 1.676459e-005 -1.069268e-006 3.156309e-006 -8.453824e-008 1.677314e+002 -1.387436e-001 -7.895426e-004 -2.411857e-002 -1.137634e-004 8.875498e-002 -4.292292e-004 -9.454038e-005 -6.134280e-005 -3.693904e-005 -2.549343e-003 -8.674489e-005 1.805437e-005 -1.708466e-005 6.877515e-006 1.548528e-002 -6.937334e-005 -1.528943e-005 -7.557887e-006 -7.460638e-006 -9.602206e-004 -3.544741e-005 9.743979e-006 -6.459434e-006 5.010995e-006
<VARIANCE> 75
 1.049567e+006 6.894472e+003 2.195622e+003 1.287757e+003 1.602952e+003 6.540410e+003 9.557382e+002 6.430430e+002 4.627685e+002 6.182172e+002 2.151180e+003 6.137337e+002 5.104472e+002 4.022949e+002 5.403018e+002 1.296938e+003 4.280503e+002 3.736247e+002 3.008260e+002 4.200427e+002 1.602690e+003 5.773929e+002 4.998542e+002 3.998209e+002 5.959875e+002 1.790463e+004 9.568385e+001 1.629990e+001 4.611192e+000 4.473375e+000 8.466651e+001 6.896198e+000 2.078614e+000 6.992697e-001 8.804787e-001 1.281630e+001 1.921888e+000 8.452824e-001 4.233579e-001 6.694016e-001 3.806066e+000 6.583760e-001 4.165711e-001 3.062276e-001 5.832787e-001 4.295202e+000 9.229570e-001 7.044321e-001 6.071292e-001 1.279847e+000 4.987798e+004 3.071560e+002 3.924490e+001 1.060229e+001 9.351210e+000 3.369942e+002 1.891541e+001 4.433615e+000 1.358434e+000 1.663478e+000 3.830457e+001 4.364098e+000 1.599082e+000 7.564988e-001 1.144526e+000 1.113949e+001 1.314463e+000 7.208826e-001 4.984454e-001 8.973773e-001 1.031137e+001 1.691578e+000 1.161364e+000 9.693828e-001 1.924202e+000
<GCONST> 3.874668e+002
<TRANSP> 3
 0.000000e+000 1.000000e+000 0.000000e+000
 0.000000e+000 9.874961e-001 1.250383e-002
 0.000000e+000 0.000000e+000 0.000000e+000
<ENDHMM>
~h "J"
<BEGINHMM>
<NUMSTATES> 3
<STATE> 2
<MEAN> 75
 1.370130e+003 1.072713e+000 3.592001e-001 1.362472e-001 1.906970e-001 1.738100e-001 -1.468286e-003 5.211956e-004 -1.903711e-003 -1.412001e-003 2.311559e-003 -8.074159e-004 -1.812352e-004 -1.726593e-004 -2.014570e-004 2.016093e-002 -1.034633e-003 2.586137e-004 -1.443151e-004 -3.733139e-005 9.951439e-003 -2.898926e-004 3.152245e-004 -3.023449e-005 4.855292e-005 -6.947909e+001 1.823771e-002 -2.465856e-002 5.556960e-003 -9.844546e-003 1.477349e-002 -2.961705e-004 -1.190499e-004 5.173397e-006 -1.597580e-005 2.931522e-004 -2.465894e-004 -3.276278e-005 -5.148748e-005 -1.220096e-005 2.550708e-003 -5.627197e-005 -1.702776e-005 2.638637e-006 -6.602469e-006 1.202035e-004 -1.227223e-004 -1.997884e-005 -2.049951e-005 -1.360195e-005 1.048145e+002 -2.021506e-001 2.212483e-002 -3.581871e-002 7.301059e-003 -8.501464e-002 -3.042135e-004 -3.158295e-005 -1.778615e-004 1.106200e-005 -2.373446e-003 3.513807e-004 5.998880e-005 5.275192e-005 1.390934e-005 -1.439141e-002 -7.643841e-005 2.574922e-005 -2.562624e-005 1.956455e-005 -1.352796e-003 1.873945e-004 3.999923e-005 2.843255e-005 1.785318e-005
<VARIANCE> 75
 7.448086e+005 8.992587e+003 3.433594e+003 1.971142e+003 2.423111e+003 9.713606e+003 1.146247e+003 6.758367e+002 4.431545e+002 6.593885e+002 4.897637e+003 8.950212e+002 5.673974e+002 3.721164e+002 5.941192e+002 3.647697e+003 6.574755e+002 4.656392e+002 3.453384e+002 6.149813e+002 4.079891e+003 8.766370e+002 7.472006e+002 5.890896e+002 9.613409e+002 1.781288e+004 1.597819e+002 2.487001e+001 6.486815e+000 5.971256e+000 1.552301e+002 8.960581e+000 2.508959e+000 7.661057e-001 9.518587e-001 2.759376e+001 2.565734e+000 9.220930e-001 3.946971e-001 6.413721e-001 7.070186e+000 8.106912e-001 4.082921e-001 2.694788e-001 5.321521e-001 6.890931e+000 1.011653e+000 6.890392e-001 5.530006e-001 1.144936e+000 3.838130e+004 3.527086e+002 5.558912e+001 1.418227e+001 1.163325e+001 3.381238e+002 2.273512e+001 6.285913e+000 1.692911e+000 1.744136e+000 5.884277e+001 6.391147e+000 2.218969e+000 7.924958e-001 1.074026e+000 1.517653e+001 1.780046e+000 8.091159e-001 4.778448e-001 8.417476e-001 1.258795e+001 1.826369e+000 1.157181e+000 8.929548e-001 1.817200e+000
<GCONST> 4.036235e+002
<TRANSP> 3
 0.000000e+000 1.000000e+000 0.000000e+000
 0.000000e+000 9.698296e-001 3.017038e-002
 0.000000e+000 0.000000e+000 0.000000e+000
<ENDHMM>
~h "K"
<BEGINHMM>
<NUMSTATES> 3
<STATE> 2
<MEAN> 75
 1.870464e+003 2.159548e-001 9.861341e-002 5.188709e-002 5.492584e-003 1.990305e-001 1.292098e-002 -1.353857e-003 1.894727e-003 -1.147677e-003 -2.001266e-001 -2.819980e-003 4.191067e-006 -1.168287e-004 -6.139858e-004 -2.945700e-002 1.584446e-003 -2.314063e-004 3.484417e-004 -1.188815e-004 -5.080593e-002 -1.457826e-003 -2.996639e-004 -2.900287e-004 -1.623727e-004 -6.629375e+001 5.091119e-001 6.854455e-003 8.896935e-002 3.048702e-003 5.913788e-002 1.777237e-004 2.643874e-004 1.022914e-005 9.854637e-005 2.454515e-002 2.547702e-004 -1.791336e-005 4.063353e-005 -4.029459e-006 1.253722e-002 6.446386e-005 4.979219e-005 1.326500e-005 3.384761e-006 9.871565e-003 9.648222e-005 4.918424e-006 1.102582e-005 -1.158545e-005 6.695428e+001 -3.500643e-002 -5.042065e-002 -3.284467e-003 -2.166050e-002 -4.394533e-002 -6.373361e-004 1.897027e-004 -2.384758e-004 9.832234e-005 -3.896526e-002 1.465449e-004 2.690227e-005 3.953650e-005 4.150538e-005 -7.384100e-003 -1.088489e-004 5.484601e-006 -4.169500e-005 1.531201e-005 -1.467342e-002 4.230443e-005 3.670164e-005 9.633009e-006 2.409611e-005
<VARIANCE> 75
 1.016688e+006 1.113314e+004 4.290278e+003 2.435507e+003 3.169672e+003 1.009838e+004 1.474046e+003 9.281094e+002 6.596611e+002 9.888954e+002 3.738099e+003 8.961042e+002 6.629258e+002 5.053473e+002 7.975892e+002 2.043026e+003 6.138198e+002 4.930996e+002 3.882656e+002 6.288762e+002 2.612844e+003 8.555568e+002 7.266089e+002 5.963519e+002 9.856750e+002 2.175243e+004 1.438091e+002 2.256673e+001 5.884976e+000 5.483987e+000 1.269534e+002 9.495510e+000 2.559246e+000 7.956995e-001 1.029335e+000 2.020193e+001 2.436794e+000 9.269904e-001 4.287137e-001 7.235674e-001 5.093088e+000 7.795902e-001 4.443813e-001 3.082269e-001 6.061224e-001 5.916654e+000 1.133724e+000 8.025378e-001 6.530809e-001 1.345321e+000 3.118826e+004 2.540707e+002 3.642080e+001 9.412936e+000 8.860219e+000 2.202325e+002 1.446908e+001 3.615842e+000 1.079522e+000 1.367481e+000 3.073403e+001 3.279241e+000 1.188646e+000 5.434479e-001 8.848005e-001 7.929240e+000 1.002694e+000 5.388396e-001 3.720122e-001 7.181123e-001 8.925996e+000 1.440563e+000 9.491139e-001 7.557316e-001 1.567759e+000
<GCONST> 3.965013e+002
<TRANSP> 3
 0.000000e+000 1.000000e+000 0.000000e+000
 0.000000e+000 9.774847e-001 2.251534e-002
 0.000000e+000 0.000000e+000 0.000000e+000
<ENDHMM>
~h "L"
<BEGINHMM>
<NUMSTATES> 3
<STATE> 2
<MEAN> 75
 1.844749e+003 5.601605e-001 -1.405858e-002 9.841829e-002 -5.566079e-003 1.378642e-001 8.429731e-003 6.516447e-004 1.251581e-003 1.733390e-004 -3.664349e-002 -6.591470e-004 1.164506e-004 -4.097974e-005 -1.351194e-005 1.923119e-002 1.186345e-003 1.611616e-004 2.538997e-004 1.139404e-004 -1.371352e-002 -2.134322e-004 5.746409e-005 -3.899754e-005 -8.230687e-006 -1.581082e+002 4.167408e-002 -1.831743e-002 3.751928e-003 -8.814717e-003 -1.043669e-002 5.910454e-004 3.736701e-005 1.475252e-005 4.150967e-005 -1.631322e-003 -5.410169e-005 -1.896937e-006 -5.539616e-008 -1.738604e-005 -1.541454e-003 1.172938e-004 1.187919e-006 1.021651e-005 6.925330e-006 2.142459e-004 -2.051010e-005 7.468128e-007 2.198786e-006 -7.081332e-006 2.865678e+002 -3.013615e-001 1.828332e-002 -5.074326e-002 6.445495e-003 -6.744492e-002 -1.198399e-003 3.380610e-005 -1.403236e-004 7.549144e-006 3.698990e-003 3.437447e-005 -8.509409e-006 -1.373893e-006 5.372779e-006 -1.115745e-002 -1.908965e-004 7.721062e-006 -2.109825e-005 -3.478343e-008 2.872985e-003 2.634989e-005 -1.327962e-006 -4.853476e-008 -7.009528e-006
<VARIANCE> 75
 1.257611e+006 1.198826e+004 3.693217e+003 1.903176e+003 2.419545e+003 6.234540e+003 9.715084e+002 6.143182e+002 4.290644e+002 6.378817e+002 1.855109e+003 4.402337e+002 3.519425e+002 2.857406e+002 4.574758e+002 1.005371e+003 2.627907e+002 2.247704e+002 1.946248e+002 3.347757e+002 1.156681e+003 3.623676e+002 3.174165e+002 2.725086e+002 4.741796e+002 3.926376e+004 2.804515e+002 4.407109e+001 1.122811e+001 1.025506e+001 1.410889e+002 1.314335e+001 3.835463e+000 1.192705e+000 1.573215e+000 1.927493e+001 2.843890e+000 1.196307e+000 5.979922e-001 1.006664e+000 5.539782e+000 8.998735e-001 5.495464e-001 4.135995e-001 8.110253e-001 5.873206e+000 1.270672e+000 9.303186e-001 7.896023e-001 1.688063e+000 9.942563e+004 9.532626e+002 1.283700e+002 3.016071e+001 2.501409e+001 4.876430e+002 3.783253e+001 9.492640e+000 2.285283e+000 2.372395e+000 5.567608e+001 6.900913e+000 2.310749e+000 7.995489e-001 1.149796e+000 1.537397e+001 1.766768e+000 7.859951e-001 4.586400e-001 8.587764e-001 1.310353e+001 2.087509e+000 1.229820e+000 9.191831e-001 1.875723e+000
<GCONST> 4.066755e+002
<TRANSP> 3
 0.000000e+000 1.000000e+000 0.000000e+000
 0.000000e+000 9.895179e-001 1.048207e-002
 0.000000e+000 0.000000e+000 0.000000e+000
<ENDHMM>
~h "M"
<BEGINHMM>
<NUMSTATES> 3
<STATE> 2
<MEAN> 75
 1.532503e+003 -7.761528e-002 2.272592e-002 -3.660411e-002 -5.465033e-003 4.138019e-001 -1.205785e-003 2.691300e-004 1.449506e-004 4.970020e-004 -3.340629e-003 -5.114718e-004 5.635105e-006 -1.526586e-004 5.800236e-005 6.962340e-002 6.721069e-005 4.264448e-005 -3.224604e-005 -9.890540e-006 -3.485152e-003 -3.072872e-004 1.032403e-004 6.605907e-005 -7.612480e-005 -1.601760e+002 -8.174507e-002 6.853206e-003 -1.335736e-002 3.650685e-003 -1.429272e-002 3.256434e-004 -7.220259e-005 1.096527e-004 -2.956273e-005 9.025280e-004 1.017217e-004 9.272493e-006 1.253988e-005 4.019889e-006 -2.125072e-003 6.863097e-005 -9.365775e-006 1.990595e-005 -4.981842e-006 -1.856218e-004 4.380181e-005 6.090049e-006 3.093497e-006 3.752281e-006 1.897691e+002 1.540298e-002 -2.981369e-002 3.310593e-003 -1.514473e-002 -2.084301e-002 -4.380691e-004 -6.762388e-006 -7.705916e-006 -1.768737e-005 -2.949357e-003 -1.363955e-004 -8.840007e-007 -1.899525e-005 -6.624966e-006 -3.399500e-003 -5.107786e-005 -4.748344e-006 9.552588e-007 -3.501925e-006 -2.573958e-003 -4.838142e-005 -2.570466e-006 -8.689457e-006 1.342328e-006
<VARIANCE> 75
 6.683864e+005 9.596454e+003 3.762494e+003 2.100625e+003 2.240747e+003 9.829511e+003 1.539192e+003 9.646584e+002 6.109948e+002 7.066295e+002 3.662198e+003 9.650828e+002 7.017750e+002 4.772056e+002 5.847322e+002 2.044055e+003 6.178980e+002 4.823068e+002 3.460510e+002 4.496095e+002 2.180226e+003 6.900149e+002 5.713454e+002 4.344770e+002 6.087542e+002 2.730687e+004 1.773036e+002 3.340884e+001 8.240900e+000 6.706119e+000 1.413788e+002 1.407269e+001 4.163720e+000 1.131355e+000 1.280881e+000 2.518062e+001 3.663649e+000 1.358406e+000 5.382337e-001 8.400972e-001 6.330465e+000 9.844136e-001 5.178846e-001 3.412549e-001 6.684071e-001 6.247288e+000 1.220796e+000 8.258321e-001 6.684519e-001 1.419503e+000 6.676758e+004 3.892788e+002 6.379725e+001 1.574674e+001 1.245077e+001 3.062795e+002 2.912323e+001 7.634320e+000 1.894772e+000 2.017680e+000 4.758029e+001 6.735693e+000 2.305197e+000 8.140625e-001 1.182316e+000 1.194747e+001 1.714258e+000 8.199837e-001 4.904129e-001 9.400327e-001 1.158489e+001 2.104316e+000 1.286071e+000 9.778224e-001 2.021104e+000
<GCONST> 4.093527e+002
<TRANSP> 3
 0.000000e+000 1.000000e+000 0.000000e+000
 0.000000e+000 9.824468e-001 1.755311e-002
 0.000000e+000 0.000000e+000 0.000000e+000
<ENDHMM>
~h "N"
<BEGINHMM>
<NUMSTATES> 3
<STATE> 2
<MEAN> 75
 1.719037e+003 -2.973579e+000 1.863044e-001 -4.870405e-001 6.855229e-002 7.853377e-001 2.500292e-003 -1.126305e-003 -2.517758e-004 -1.554904e-003 1.317628e-002 -1.680551e-004 2.400449e-004 1.064049e-004 1.007458e-004 1.325641e-001 9.861247e-004 8.146755e-005 -1.945232e-005 -1.214752e-004 5.246401e-003 6.679360e-004 1.475658e-005 -5.550127e-005 9.474179e-005 -1.242738e+002 -3.741548e-001 -3.699259e-003 -6.031165e-002 -1.791229e-003 5.169016e-002 9.192836e-004 -8.218133e-006 2.143187e-004 -3.879456e-006 1.464057e-003 1.984063e-005 -9.376422e-006 -1.823993e-006 -8.756286e-006 8.830088e-003 1.540261e-004 -4.603605e-008 4.017160e-005 1.336647e-006 8.967216e-004 -1.551372e-006 -6.944622e-006 4.288532e-006 -5.289672e-006 6.985206e+001 7.908159e-001 5.129217e-002 1.308426e-001 2.235202e-002 -5.689822e-002 -1.078449e-003 3.753820e-004 -1.917154e-004 1.764302e-004 -9.990842e-004 -5.068358e-005 3.629871e-006 -1.556880e-005 -1.401147e-006 -9.591226e-003 -1.916632e-004 6.461114e-005 -3.304203e-005 2.733600e-005 -2.848304e-004 -1.651917e-005 -5.781956e-006 -1.198262e-006 -3.029659e-006
<VARIANCE> 75
 9.520276e+005 1.637916e+004 5.597873e+003 2.824973e+003 3.143374e+003 1.697821e+004 2.073426e+003 1.137435e+003 6.874189e+002 8.545650e+002 5.410555e+003 1.172445e+003 7.644453e+002 4.896543e+002 6.195645e+002 2.623785e+003 6.869474e+002 4.928796e+002 3.294076e+002 4.263552e+002 2.906393e+003 7.923994e+002 6.033612e+002 4.280858e+002 5.924603e+002 2.682944e+004 3.866799e+002 4.518314e+001 1.182865e+001 9.704597e+000 2.563137e+002 1.333127e+001 2.882983e+000 8.385841e-001 1.121292e+000 2.863891e+001 2.708944e+000 9.002908e-001 4.316476e-001 7.670532e-001 7.689305e+000 8.244089e-001 4.519676e-001 3.367447e-001 6.860390e-001 8.108953e+000 1.282067e+000 8.943909e-001 7.405896e-001 1.582108e+000 5.301545e+004 7.374300e+002 8.365445e+001 2.014790e+001 1.808014e+001 4.359663e+002 2.235638e+001 4.301499e+000 1.185542e+000 1.586969e+000 4.601471e+001 3.802751e+000 1.150990e+000 5.428764e-001 9.713943e-001 1.232476e+001 1.156084e+000 5.791444e-001 4.178270e-001 8.275068e-001 1.320867e+001 1.797047e+000 1.162744e+000 9.238919e-001 1.868615e+000
<GCONST> 4.121337e+002
<TRANSP> 3
 0.000000e+000 1.000000e+000 0.000000e+000
 0.000000e+000 9.734033e-001 2.659671e-002
 0.000000e+000 0.000000e+000 0.000000e+000
<ENDHMM>
~h "O"
<BEGINHMM>
<NUMSTATES> 3
<STATE> 2
<MEAN> 75
 1.569716e+003 1.481749e+000 6.989239e-002 2.173088e-001 2.131575e-002 -4.388310e-001 7.381550e-003 4.937014e-003 1.446937e-003 -1.167640e-004 2.994844e-002 -1.334023e-003 -2.046328e-004 7.383374e-005 8.952803e-004 -7.845522e-002 1.465461e-003 4.106666e-004 -1.879570e-004 -1.480354e-005 1.361717e-002 -4.943413e-005 2.456226e-005 -2.768324e-004 -3.802507e-004 -4.194727e+001 -1.347495e-001 -9.935757e-003 -2.122213e-002 -6.734117e-003 1.016256e-001 1.745079e-004 -1.078781e-005 -4.432846e-005 3.679740e-005 -4.495537e-004 -3.164172e-005 1.464358e-005 3.864860e-006 1.114784e-005 1.732070e-002 2.416587e-005 -1.139220e-005 -2.890619e-006 1.625990e-006 8.542640e-007 -7.197486e-006 -1.902351e-006 -6.433234e-006 -2.670263e-006 -5.429443e+000 -8.686107e-002 5.381067e-003 -1.683109e-002 9.533680e-004 7.605848e-002 -4.061021e-004 -1.359249e-004 -1.120535e-004 -8.710151e-005 4.756665e-003 2.311213e-004 -5.287692e-005 5.331852e-005 -8.934792e-006 1.278259e-002 -3.898568e-005 -2.209930e-005 -1.291608e-005 -1.202678e-005 2.587595e-003 1.321348e-004 -1.354163e-005 2.679360e-005 2.186508e-006
<VARIANCE> 75
 1.002600e+006 2.134117e+004 8.563263e+003 4.704988e+003 5.423985e+003 1.671306e+004 2.918003e+003 1.855488e+003 1.247545e+003 1.658612e+003 5.993304e+003 1.586760e+003 1.189499e+003 8.879385e+002 1.271029e+003 3.068157e+003 9.431524e+002 7.545361e+002 5.862925e+002 8.969762e+002 3.617614e+003 1.220482e+003 1.026955e+003 8.078106e+002 1.261489e+003 3.583123e+004 4.340722e+002 6.866257e+001 1.722055e+001 1.526345e+001 3.251528e+002 3.052509e+001 8.525327e+000 2.486181e+000 2.854630e+000 5.257587e+001 7.677768e+000 2.931965e+000 1.297981e+000 1.965315e+000 1.333327e+001 2.166937e+000 1.152518e+000 7.955162e-001 1.575894e+000 1.229585e+001 2.599251e+000 1.818312e+000 1.529899e+000 3.225648e+000 6.277604e+004 8.748423e+002 1.404491e+002 3.856053e+001 2.690117e+001 6.851503e+002 6.044338e+001 1.565619e+001 4.119648e+000 4.082929e+000 9.099120e+001 1.311899e+001 4.463640e+000 1.576283e+000 2.283955e+000 2.227707e+001 3.007731e+000 1.393272e+000 8.316882e-001 1.656126e+000 1.983923e+001 3.513137e+000 2.069315e+000 1.591612e+000 3.375419e+000
<GCONST> 4.596963e+002
<TRANSP> 3
 0.000000e+000 1.000000e+000 0.000000e+000
 0.000000e+000 9.776922e-001 2.230786e-002
 0.000000e+000 0.000000e+000 0.000000e+000
<ENDHMM>
~h "P"
<BEGINHMM>
<NUMSTATES> 3
<STATE> 2
<MEAN> 75
 1.542099e+003 3.254209e-001 1.643039e-002 4.921304e-002 7.969865e-003 -1.060684e-001 -5.521482e-004 -4.692228e-004 9.944652e-005 -1.727521e-004 -2.691062e-003 -1.009900e-004 2.483216e-005 -1.003201e-005 1.224975e-005 -1.864281e-002 -2.052444e-004 -3.608230e-005 5.378536e-005 -2.188117e-005 -1.316624e-003 -2.732218e-004 5.244782e-005 -6.293763e-005 8.387249e-006 -7.548827e+001 3.886711e-002 -4.101007e-003 5.200628e-003 -1.696063e-003 -3.334275e-002 4.044340e-004 5.040341e-005 4.675759e-005 2.051391e-005 -2.838685e-004 -2.409279e-005 2.501731e-006 -4.320238e-006 3.666940e-006 -5.621692e-003 6.985597e-005 6.857716e-006 1.031884e-005 1.766457e-006 1.434592e-004 -4.557261e-006 -1.108251e-007 1.958509e-006 -7.452419e-007 1.293306e+002 -1.462829e-001 -6.985625e-003 -2.542310e-002 -2.924288e-003 1.660875e-001 -4.983967e-004 -1.370736e-004 -1.418413e-004 -6.875435e-005 -1.847551e-005 1.096460e-004 1.964140e-005 1.665568e-005 7.784214e-006 2.843651e-002 -9.079273e-005 -1.905677e-005 -2.357426e-005 -8.560974e-006 2.331611e-004 5.529542e-005 9.604501e-006 8.728704e-006 3.183161e-006
<VARIANCE> 75
 9.548746e+005 1.197825e+004 4.300669e+003 2.358720e+003 2.839289e+003 1.224203e+004 1.567610e+003 8.757166e+002 5.463526e+002 7.294446e+002 4.210107e+003 8.778834e+002 5.897714e+002 4.059367e+002 5.647688e+002 2.212174e+003 5.372619e+002 4.000990e+002 2.950096e+002 4.210746e+002 2.564624e+003 6.871699e+002 5.359063e+002 4.087912e+002 6.136307e+002 3.713807e+004 2.539992e+002 3.890923e+001 1.012962e+001 9.157480e+000 2.292019e+002 1.572908e+001 3.935896e+000 1.148587e+000 1.454120e+000 3.073797e+001 3.670882e+000 1.317463e+000 5.755422e-001 9.447892e-001 8.157107e+000 1.042300e+000 5.578119e-001 3.887824e-001 7.737905e-001 8.005248e+000 1.389728e+000 9.348807e-001 7.717159e-001 1.667248e+000 1.151342e+005 7.401329e+002 1.030073e+002 2.636557e+001 2.128748e+001 6.820978e+002 4.381334e+001 1.016331e+001 2.667335e+000 2.987334e+000 8.560796e+001 9.733959e+000 3.151510e+000 1.181907e+000 1.778048e+000 2.286588e+001 2.542624e+000 1.190534e+000 7.484851e-001 1.419188e+000 1.934393e+001 2.996463e+000 1.836669e+000 1.450967e+000 3.077850e+000
<GCONST> 4.248476e+002
<TRANSP> 3
 0.000000e+000 1.000000e+000 0.000000e+000
 0.000000e+000 9.791980e-001 2.080193e-002
 0.000000e+000 0.000000e+000 0.000000e+000
<ENDHMM>
~h "Q"
<BEGINHMM>
<NUMSTATES> 3
<STATE> 2
<MEAN> 75
 1.550782e+003 5.737092e-001 2.861878e-002 8.127762e-002 4.807669e-002 1.102963e-001 -4.644917e-003 -2.068689e-003 -3.986790e-004 -4.885092e-004 -2.492860e-003 -1.382235e-003 -9.742934e-004 -9.426009e-004 -7.608472e-004 2.562389e-002 -9.507898e-004 4.412514e-004 -3.048947e-004 -5.698307e-005 7.400984e-003 -1.283323e-003 -7.792608e-004 -3.563458e-004 2.351651e-004 -1.075827e+002 8.269331e-002 3.075125e-002 9.902726e-003 1.373448e-002 1.029601e-001 -1.403906e-003 5.469320e-004 -3.018917e-004 2.054774e-004 -5.783138e-004 -1.027011e-004 1.178005e-004 1.531839e-005 3.787212e-005 1.789516e-002 -2.509432e-004 5.098728e-005 -3.070902e-005 1.193087e-005 -9.560378e-004 -2.131901e-005 2.886082e-005 2.012950e-005 -1.009323e-005 8.000144e+001 -9.509133e-002 -4.022047e-003 -1.652396e-002 -1.185242e-003 -3.101724e-001 2.070243e-003 -4.666493e-005 1.359253e-004 -4.788635e-006 -1.118845e-003 -2.670735e-004 -1.172403e-005 -4.118513e-005 -2.712017e-005 -5.268997e-002 3.636247e-004 1.927968e-005 3.164296e-005 1.819592e-005 -1.237587e-003 -1.164439e-004 -1.037367e-005 -1.169964e-005 -1.522252e-005
<VARIANCE> 75
 9.004366e+005 1.271231e+004 5.054149e+003 2.713127e+003 3.322036e+003 1.505574e+004 1.810711e+003 1.059051e+003 6.431207e+002 8.070007e+002 5.976272e+003 1.062148e+003 7.338263e+002 4.951143e+002 6.479479e+002 3.419689e+003 6.498179e+002 4.929495e+002 3.624000e+002 4.908161e+002 4.180943e+003 8.085055e+002 6.420421e+002 4.949005e+002 6.965186e+002 4.478705e+004 2.794566e+002 4.856411e+001 1.203023e+001 1.159500e+001 2.960588e+002 2.191676e+001 5.820994e+000 1.781072e+000 2.319347e+000 4.687052e+001 5.556380e+000 2.128682e+000 9.970989e-001 1.662428e+000 1.178373e+001 1.698343e+000 9.883862e-001 7.200389e-001 1.429551e+000 1.282835e+001 2.344596e+000 1.669211e+000 1.431702e+000 3.156361e+000 5.200072e+004 3.916870e+002 6.280967e+001 1.454918e+001 1.276990e+001 4.443024e+002 2.672764e+001 6.149927e+000 1.545712e+000 1.770015e+000 6.862865e+001 6.116103e+000 1.867976e+000 6.737440e-001 1.029434e+000 1.594350e+001 1.559894e+000 6.974174e-001 4.230931e-001 8.150285e-001 1.613321e+001 1.968833e+000 1.141213e+000 8.670162e-001 1.788045e+000
<GCONST> 4.277795e+002
<TRANSP> 3
 0.000000e+000 1.000000e+000 0.000000e+000
 0.000000e+000 9.685591e-001 3.144089e-002
 0.000000e+000 0.000000e+000 0.000000e+000
<ENDHMM>
~h "R"
<BEGINHMM>
<NUMSTATES> 3
<STATE> 2
<MEAN> 75
 1.883788e+003 1.540741e+000 1.147949e-001 2.777901e-001 5.575828e-002 5.333426e-002 1.690614e-003 2.688606e-004 1.273873e-004 2.791114e-004 -1.995082e-002 -2.534519e-004 3.625485e-004 3.418075e-006 2.236408e-004 4.445350e-003 3.945981e-004 2.217584e-004 1.147538e-004 1.526798e-004 -1.122533e-002 -4.058575e-004 1.158754e-005 -5.750938e-006 5.285279e-005 -1.361513e+002 5.451304e-002 -2.092676e-003 8.328957e-003 -1.142607e-003 1.722747e-002 1.643270e-005 3.074234e-005 1.367745e-005 3.169329e-005 9.294694e-005 -1.944871e-005 -1.696401e-005 -4.609537e-006 -1.542525e-005 2.838240e-003 -3.487043e-006 -2.064568e-006 1.946280e-007 -2.100495e-006 -5.503781e-004 1.457580e-005 -3.434305e-007 1.045492e-005 -1.817844e-006 4.350959e+001 2.016014e-001 -1.357742e-002 3.515759e-002 -6.002894e-003 3.519911e-002 -9.991360e-005 -4.195193e-005 -2.988741e-005 -3.755873e-005 -1.315572e-003 3.968816e-005 2.244404e-005 4.434740e-006 5.339906e-006 6.391843e-003 -9.055211e-006 -1.351989e-005 -6.512950e-006 -6.582359e-006 -1.068240e-003 -6.689826e-006 9.552692e-006 3.765767e-007 6.615197e-007
<VARIANCE> 75
 9.581763e+005 9.951424e+003 3.320041e+003 1.707445e+003 1.857977e+003 9.579785e+003 1.417191e+003 7.707103e+002 4.534994e+002 5.578800e+002 3.585069e+003 8.566268e+002 5.538729e+002 3.568368e+002 4.645504e+002 1.942966e+003 5.493733e+002 3.945275e+002 2.725118e+002 3.702545e+002 2.147470e+003 6.876757e+002 5.429138e+002 4.035704e+002 5.682948e+002 2.644321e+004 1.102799e+002 1.496441e+001 4.043752e+000 4.348479e+000 1.226165e+002 6.358238e+000 1.436448e+000 4.759462e-001 7.512634e-001 1.460597e+001 1.424932e+000 5.124133e-001 2.773036e-001 5.192237e-001 4.189544e+000 4.925523e-001 2.872161e-001 2.174430e-001 4.407668e-001 4.952375e+000 8.187742e-001 5.646818e-001 4.597273e-001 9.556366e-001 3.736662e+004 1.451251e+002 1.828461e+001 5.323261e+000 6.061643e+000 1.221433e+002 7.882182e+000 1.847413e+000 6.375185e-001 1.015112e+000 1.577055e+001 1.887645e+000 7.178739e-001 3.797243e-001 6.883550e-001 4.808707e+000 6.874911e-001 4.008309e-001 2.925280e-001 5.709151e-001 6.570666e+000 1.149227e+000 7.783815e-001 6.131581e-001 1.236184e+000
<GCONST> 3.715659e+002
<TRANSP> 3
 0.000000e+000 1.000000e+000 0.000000e+000
 0.000000e+000 9.803467e-001 1.965327e-002
 0.000000e+000 0.000000e+000 0.000000e+000
<ENDHMM>
~h "S"
<BEGINHMM>
<NUMSTATES> 3
<STATE> 2
<MEAN> 75
 1.369483e+003 2.661735e+000 1.637441e-002 4.511751e-001 -3.491318e-002 1.334942e+000 1.011310e-002 -3.397170e-003 1.023475e-003 -2.850736e-004 2.229359e-003 -3.421355e-004 3.692260e-004 4.688633e-004 2.463975e-004 2.278027e-001 1.218544e-003 -7.028212e-004 2.877500e-004 -7.740800e-005 3.673998e-003 3.621545e-004 2.163042e-004 3.075719e-004 8.383788e-005 -6.251044e+001 -1.443688e-001 -1.514435e-002 -2.637838e-002 -5.938747e-003 -3.074211e-002 8.710719e-004 -1.515263e-004 5.664022e-005 -8.967228e-005 -2.310369e-003 7.326419e-005 -4.248029e-005 -8.353621e-006 -1.523030e-005 -5.034308e-003 1.403642e-004 3.830731e-005 1.545052e-005 8.364364e-006 -1.059519e-003 1.518297e-006 -2.067099e-005 -1.040645e-005 -6.353398e-006 1.209613e+002 3.257643e-002 2.364506e-002 8.620996e-003 1.071788e-002 2.887075e-002 -3.691739e-004 -1.428142e-004 -6.546151e-005 -6.138352e-005 -2.287332e-003 -6.230950e-005 1.568697e-005 -1.320540e-005 2.938892e-005 5.123489e-003 -1.279264e-005 -4.624690e-006 -1.129390e-005 -1.782214e-005 -6.331004e-004 -2.222209e-006 3.289265e-005 -1.870820e-005 1.374205e-005
<VARIANCE> 75
 8.055689e+005 8.311163e+003 2.851740e+003 1.512140e+003 1.763475e+003 7.620885e+003 8.960239e+002 5.879610e+002 4.059792e+002 5.454942e+002 2.830944e+003 4.586178e+002 3.518079e+002 2.737729e+002 3.945053e+002 1.493592e+003 2.784633e+002 2.233694e+002 1.776744e+002 2.607541e+002 1.821732e+003 3.795108e+002 2.901790e+002 2.155295e+002 3.394679e+002 2.100970e+004 2.064609e+002 3.532238e+001 8.958538e+000 7.917154e+000 1.763332e+002 1.501659e+001 4.703914e+000 1.391051e+000 1.535157e+000 3.172194e+001 3.967117e+000 1.700880e+000 7.658631e-001 1.110313e+000 8.070702e+000 1.200055e+000 7.277169e-001 5.224205e-001 9.543979e-001 8.607918e+000 1.567342e+000 1.076005e+000 8.947928e-001 2.135775e+000 4.258010e+004 5.266425e+002 8.722591e+001 2.121527e+001 1.692363e+001 4.269244e+002 3.833602e+001 1.083162e+001 2.704869e+000 2.566714e+000 6.805478e+001 8.990109e+000 3.201945e+000 1.119475e+000 1.382515e+000 1.628991e+001 2.169991e+000 1.039067e+000 6.319758e-001 1.080166e+000 1.486601e+001 2.473556e+000 1.450876e+000 1.087313e+000 2.452642e+000
<GCONST> 4.091550e+002
<TRANSP> 3
 0.000000e+000 1.000000e+000 0.000000e+000
 0.000000e+000 9.823157e-001 1.768435e-002
 0.000000e+000 0.000000e+000 0.000000e+000
<ENDHMM>
~h "T"
<BEGINHMM>
<NUMSTATES> 3
<STATE> 2
<MEAN> 75
 1.600098e+003 6.828181e+000 1.898022e-001 1.137756e+000 7.693721e-002 -4.417526e-002 -2.121643e-004 2.120075e-003 1.097984e-003 2.156875e-003 -3.994172e-003 -1.566963e-004 -4.101552e-004 -9.059811e-005 -1.282875e-004 1.401581e-002 -3.666008e-004 2.915126e-004 2.415790e-004 3.260342e-004 3.490663e-002 4.511603e-005 -2.192984e-004 -2.381297e-005 2.190713e-005 -2.361666e+001 2.087127e-001 -1.363400e-002 3.543635e-002 -7.409411e-003 -1.437572e-002 6.068539e-004 -7.341696e-005 6.844342e-005 -5.494752e-005 -5.408098e-004 3.851307e-007 5.393549e-006 -6.895827e-006 -2.477524e-006 -2.282664e-003 9.487409e-005 -8.502492e-006 5.168087e-006 -1.758392e-005 -3.800480e-004 5.974564e-006 5.425435e-006 -7.960220e-007 -1.618993e-006 1.658181e+001 -2.960093e-001 1.080867e-002 -4.477756e-002 7.770486e-003 2.351685e-002 1.135941e-003 3.220794e-005 1.462800e-004 -7.962116e-006 -1.591345e-003 2.205897e-005 7.608100e-006 1.892046e-005 -8.025145e-006 3.046852e-003 1.964640e-004 3.475450e-006 2.899387e-005 1.643666e-006 -2.540074e-003 9.925329e-006 6.169005e-006 3.423894e-006 6.501521e-006
<VARIANCE> 75
 1.176078e+006 2.402154e+004 1.073390e+004 6.625803e+003 9.511493e+003 1.812358e+004 1.939708e+003 1.178565e+003 8.709811e+002 1.398840e+003 9.293139e+003 1.158265e+003 7.610154e+002 5.574974e+002 8.835434e+002 5.371662e+003 7.985367e+002 5.646075e+002 4.095714e+002 6.374477e+002 7.180850e+003 1.137765e+003 8.319166e+002 6.131003e+002 9.535930e+002 2.929628e+004 5.726013e+002 1.092326e+002 2.655061e+001 2.504857e+001 3.136495e+002 2.086020e+001 4.772488e+000 1.440585e+000 1.814694e+000 6.144510e+001 5.212911e+000 1.602243e+000 6.821305e-001 1.125020e+000 1.529006e+001 1.587011e+000 7.399149e-001 4.775812e-001 9.074314e-001 1.408599e+001 1.967113e+000 1.268177e+000 9.867414e-001 1.910948e+000 5.357671e+004 1.091498e+003 2.116634e+002 4.787708e+001 3.716862e+001 7.178498e+002 4.219667e+001 9.643314e+000 2.522962e+000 2.778856e+000 1.549843e+002 1.090159e+001 3.143946e+000 1.132427e+000 1.655589e+000 3.573447e+001 2.927552e+000 1.249036e+000 7.625168e-001 1.370268e+000 2.948544e+001 3.236636e+000 1.915085e+000 1.515923e+000 3.182873e+000
<GCONST> 4.510586e+002
<TRANSP> 3
 0.000000e+000 1.000000e+000 0.000000e+000
 0.000000e+000 9.846091e-001 1.539085e-002
 0.000000e+000 0.000000e+000 0.000000e+000
<ENDHMM>
~h "U"
<BEGINHMM>
<NUMSTATES> 3
<STATE> 2
<MEAN> 75
 1.636648e+003 1.063150e+000 2.087528e-001 1.860413e-001 9.080061e-002 -1.399654e-002 -3.581901e-003 1.612224e-003 -9.284137e-004 1.108844e-004 1.196351e-002 4.066519e-004 7.397929e-005 6.949942e-005 -6.720762e-005 2.538107e-003 -2.464927e-004 3.672922e-004 -1.556872e-004 4.318044e-006 5.286397e-003 1.757693e-004 1.320222e-004 -4.202796e-005 1.824939e-006 -3.065915e+001 -1.516827e-001 -3.159011e-002 -2.790657e-002 -1.504725e-002 -4.737820e-002 -3.082766e-004 2.562743e-005 -6.809885e-005 5.285017e-006 -3.130304e-003 -2.654960e-004 4.457446e-006 -4.217194e-005 -1.959279e-006 -8.656452e-003 -5.010864e-005 2.090320e-007 -8.853277e-006 8.443923e-008 -2.269393e-003 -8.892411e-005 1.045390e-005 -1.598843e-005 1.414495e-006 1.690052e+001 1.324806e-002 5.226083e-002 1.898115e-003 2.253925e-002 7.970961e-002 -6.625539e-004 -2.194872e-004 -1.005571e-004 -8.590876e-005 5.422040e-003 2.020144e-004 -4.972925e-006 3.672539e-005 -3.325578e-007 1.383374e-002 -1.021363e-004 -3.525248e-005 -2.099376e-005 -9.247849e-006 2.350246e-003 6.217464e-005 -5.150007e-006 1.319363e-005 -3.367637e-006
<VARIANCE> 75
 1.079868e+006 1.372606e+004 4.842229e+003 2.688840e+003 3.090454e+003 1.078850e+004 7.969882e+002 4.815199e+002 3.319915e+002 4.488212e+002 4.096013e+003 4.558490e+002 2.941241e+002 2.095553e+002 3.012086e+002 2.310809e+003 3.048029e+002 2.016749e+002 1.461248e+002 2.144712e+002 2.889358e+003 4.354942e+002 2.931784e+002 2.152029e+002 3.170717e+002 6.010138e+004 3.564472e+002 5.453144e+001 1.416543e+001 1.161404e+001 3.489982e+002 1.568252e+001 3.920859e+000 1.075804e+000 1.214298e+000 5.559021e+001 4.112084e+000 1.289571e+000 4.786254e-001 7.116868e-001 1.385309e+001 1.114235e+000 4.925420e-001 2.988196e-001 5.594653e-001 1.220289e+001 1.286844e+000 7.668882e-001 5.943717e-001 1.190459e+000 5.380652e+004 5.452680e+002 9.002451e+001 2.237489e+001 2.053279e+001 4.908566e+002 2.857896e+001 7.318309e+000 2.186276e+000 2.664550e+000 8.365513e+001 7.616145e+000 2.574670e+000 1.064058e+000 1.634291e+000 2.213578e+001 2.409247e+000 1.170402e+000 7.197835e-001 1.311427e+000 2.024274e+001 2.916608e+000 1.871748e+000 1.424702e+000 2.738274e+000
<GCONST> 4.133308e+002
<TRANSP> 3
 0.000000e+000 1.000000e+000 0.000000e+000
 0.000000e+000 9.854027e-001 1.459732e-002
 0.000000e+000 0.000000e+000 0.000000e+000
<ENDHMM>
~h "Z"
<BEGINHMM>
<NUMSTATES> 3
<STATE> 2
<MEAN> 75
 1.689029e+003 6.988460e-001 2.115139e-002 1.295928e-001 1.278796e-002 3.313800e-002 -1.391315e-003 2.339965e-004 -3.142257e-004 8.264789e-005 1.095471e-003 1.647444e-004 1.572727e-004 2.959410e-005 1.087805e-004 5.758517e-003 -2.153683e-004 9.972660e-006 -5.003262e-005 2.105338e-006 5.281735e-004 1.451321e-004 1.323983e-005 3.652630e-005 1.023187e-005 -7.832160e+001 4.785711e-002 -1.017189e-003 8.132148e-003 -6.399832e-004 -2.429452e-003 -4.914514e-005 -3.716943e-005 3.046330e-006 -1.475305e-005 -4.747313e-004 4.537000e-006 1.054718e-006 1.339513e-006 7.560010e-007 -3.941754e-004 -6.270920e-006 -6.612587e-006 -1.224146e-006 -5.136849e-007 -1.576163e-004 3.520761e-006 2.223170e-006 -7.791698e-007 1.391080e-006 8.503855e+001 -1.005065e-001 -6.460961e-004 -1.744690e-002 -4.437110e-005 -2.406914e-004 -5.589070e-005 3.240858e-005 -3.273668e-007 1.316472e-005 -7.988433e-004 -3.347019e-005 -8.580825e-006 -3.666018e-006 -2.712939e-006 -2.009991e-006 -7.240714e-006 4.295196e-006 1.678104e-007 1.132291e-006 -2.359316e-004 -2.041758e-005 -6.780266e-006 -2.000139e-006 -1.030810e-006
<VARIANCE> 75
 9.862448e+005 1.394728e+004 5.228995e+003 2.902554e+003 3.658384e+003 1.160207e+004 1.512589e+003 8.920479e+002 5.824400e+002 8.101730e+002 4.311975e+003 8.526513e+002 5.907572e+002 4.182665e+002 5.986052e+002 2.353980e+003 5.326673e+002 4.048825e+002 3.026760e+002 4.475948e+002 2.825809e+003 6.894396e+002 5.470637e+002 4.266178e+002 6.547729e+002 3.899554e+004 2.785940e+002 4.427895e+001 1.121609e+001 1.001933e+001 2.129433e+002 1.502860e+001 3.923347e+000 1.144165e+000 1.410543e+000 3.156934e+001 3.591049e+000 1.301802e+000 5.694020e-001 9.247646e-001 8.221560e+000 1.049888e+000 5.607386e-001 3.886602e-001 7.673289e-001 8.081601e+000 1.383467e+000 9.437286e-001 7.795166e-001 1.650191e+000 7.620676e+004 5.986425e+002 8.860033e+001 2.181306e+001 1.800135e+001 4.907213e+002 3.134099e+001 7.550129e+000 2.010500e+000 2.248607e+000 6.729985e+001 7.006144e+000 2.297191e+000 8.826826e-001 1.327788e+000 1.711848e+001 1.867285e+000 8.834563e-001 5.553320e-001 1.048869e+000 1.554079e+001 2.275105e+000 1.400629e+000 1.095640e+000 2.272711e+000
<GCONST> 4.195662e+002
<TRANSP> 3
 0.000000e+000 1.000000e+000 0.000000e+000
 0.000000e+000 9.795438e-001 2.045623e-002
 0.000000e+000 0.000000e+000 0.000000e+000
<ENDHMM>
